import cv2

# Initialize the HOG descriptor/person detector
hog = cv2.HOGDescriptor()
hog.setSVMDetector(cv2.HOGDescriptor_getDefaultPeopleDetector())

# Open the video file
cap = cv2.VideoCapture('sample1.mp4')

# Check if the video was successfully opened
if not cap.isOpened():
    print("Error: Could not open video file.")
else:
    while True:
        # Read frame by frame from the video
        ret, frame = cap.read()
        
        if not ret:
            print("End of video or error reading frame.")
            break

        # Resize the frame to improve speed and efficiency
        frame_resized = cv2.resize(frame, (640, 360))

        # Detect people in the frame using the HOG descriptor
        (rects, weights) = hog.detectMultiScale(frame_resized, 
                                                winStride=(8, 8),  # smaller stride to improve accuracy
                                                padding=(8, 8),    # padding around detected people
                                                scale=1.03)        # smaller scale to detect smaller people

        # Draw green rectangles around the detected people
        for (x, y, w, h) in rects:
            cv2.rectangle(frame_resized, (x, y), (x + w, y + h), (1, 255, 1), 2)

        # Display the frame with HOG detections
        cv2.imshow('Video Frame - HOG Detection', frame_resized)

        # Wait for 'q' key to exit the loop
        if cv2.waitKey(25) & 0xFF == ord('q'):
            break

# Release the video capture object and close OpenCV windows
cap.release()
cv2.destroyAllWindows()
